<?xml version="1.0"?>
<!-- DTD for the XMLBIF 0.3 format -->
<!DOCTYPE BIF [
	<!ELEMENT BIF ( NETWORK )*>
	      <!ATTLIST BIF VERSION CDATA #REQUIRED>
	<!ELEMENT NETWORK ( NAME, ( PROPERTY | VARIABLE | DEFINITION )* )>
	<!ELEMENT NAME (#PCDATA)>
	<!ELEMENT VARIABLE ( NAME, ( OUTCOME |  PROPERTY )* ) >
	      <!ATTLIST VARIABLE TYPE (nature|decision|utility) "nature">
	<!ELEMENT OUTCOME (#PCDATA)>
	<!ELEMENT DEFINITION ( FOR | GIVEN | TABLE | PROPERTY )* >
	<!ELEMENT FOR (#PCDATA)>
	<!ELEMENT GIVEN (#PCDATA)>
	<!ELEMENT TABLE (#PCDATA)>
	<!ELEMENT PROPERTY (#PCDATA)>
]>


<BIF VERSION="0.3">
<NETWORK>
<NAME>&apos;processed4clusteringCity-weka.filters.unsupervised.attribute.NumericToNominal-Rfirst-last-weka.filters.unsupervised.attribute.RenameNominalValues-RIsCanceled, IsRepeatedGuest, WasInWaitingList-N0:False, 1:True-weka.filters.unsupervised.attribute.ReplaceMissingValues&apos;</NAME>
<VARIABLE TYPE="nature">
	<NAME>IsCanceled</NAME>
	<OUTCOME>False</OUTCOME>
	<OUTCOME>True</OUTCOME>
	<PROPERTY>position = (1168,288)</PROPERTY>
</VARIABLE>
<VARIABLE TYPE="nature">
	<NAME>Meal</NAME>
	<OUTCOME>&apos;HB       &apos;</OUTCOME>
	<OUTCOME>&apos;BB       &apos;</OUTCOME>
	<OUTCOME>&apos;SC       &apos;</OUTCOME>
	<OUTCOME>&apos;FB       &apos;</OUTCOME>
	<PROPERTY>position = (730,864)</PROPERTY>
</VARIABLE>
<VARIABLE TYPE="nature">
	<NAME>DistributionChannel</NAME>
	<OUTCOME>TA/TO</OUTCOME>
	<OUTCOME>Direct</OUTCOME>
	<OUTCOME>Undefined</OUTCOME>
	<OUTCOME>Corporate</OUTCOME>
	<OUTCOME>GDS</OUTCOME>
	<PROPERTY>position = (730,384)</PROPERTY>
</VARIABLE>
<VARIABLE TYPE="nature">
	<NAME>IsRepeatedGuest</NAME>
	<OUTCOME>False</OUTCOME>
	<OUTCOME>True</OUTCOME>
	<PROPERTY>position = (730,0)</PROPERTY>
</VARIABLE>
<VARIABLE TYPE="nature">
	<NAME>DepositType</NAME>
	<OUTCOME>&apos;No Deposit     &apos;</OUTCOME>
	<OUTCOME>&apos;Non Refund     &apos;</OUTCOME>
	<OUTCOME>&apos;Refundable     &apos;</OUTCOME>
	<PROPERTY>position = (438,192)</PROPERTY>
</VARIABLE>
<VARIABLE TYPE="nature">
	<NAME>CustomerType</NAME>
	<OUTCOME>Transient</OUTCOME>
	<OUTCOME>Transient-Party</OUTCOME>
	<OUTCOME>Contract</OUTCOME>
	<OUTCOME>Group</OUTCOME>
	<PROPERTY>position = (876,768)</PROPERTY>
</VARIABLE>
<VARIABLE TYPE="nature">
	<NAME>TotalOfSpecialRequests</NAME>
	<OUTCOME>0</OUTCOME>
	<OUTCOME>1</OUTCOME>
	<OUTCOME>2</OUTCOME>
	<OUTCOME>3</OUTCOME>
	<OUTCOME>4</OUTCOME>
	<OUTCOME>5</OUTCOME>
	<PROPERTY>position = (876,672)</PROPERTY>
</VARIABLE>
<VARIABLE TYPE="nature">
	<NAME>WasInWaitingList</NAME>
	<OUTCOME>False</OUTCOME>
	<OUTCOME>True</OUTCOME>
	<PROPERTY>position = (876,864)</PROPERTY>
</VARIABLE>
<VARIABLE TYPE="nature">
	<NAME>Season</NAME>
	<OUTCOME>summer</OUTCOME>
	<OUTCOME>autumn</OUTCOME>
	<OUTCOME>winter</OUTCOME>
	<OUTCOME>spring</OUTCOME>
	<PROPERTY>position = (1314,1056)</PROPERTY>
</VARIABLE>
<VARIABLE TYPE="nature">
	<NAME>ADR</NAME>
	<OUTCOME>&apos;(-0.311, 103.593]&apos;</OUTCOME>
	<OUTCOME>&apos;(103.593, 207.187]&apos;</OUTCOME>
	<OUTCOME>&apos;(207.187, 310.78]&apos;</OUTCOME>
	<PROPERTY>position = (1314,960)</PROPERTY>
</VARIABLE>
<VARIABLE TYPE="nature">
	<NAME>LeadTime</NAME>
	<OUTCOME>&apos;(-0.001, 7.0]&apos;</OUTCOME>
	<OUTCOME>&apos;(30.0, 90.0]&apos;</OUTCOME>
	<OUTCOME>&apos;(7.0, 30.0]&apos;</OUTCOME>
	<OUTCOME>&apos;(90.0, 180.0]&apos;</OUTCOME>
	<OUTCOME>&apos;(180.0, 365.0]&apos;</OUTCOME>
	<OUTCOME>&apos;(365.0, 584.0]&apos;</OUTCOME>
	<PROPERTY>position = (1460,480)</PROPERTY>
</VARIABLE>
<VARIABLE TYPE="nature">
	<NAME>BookingChanges</NAME>
	<OUTCOME>&apos;(-0.001, 5.0]&apos;</OUTCOME>
	<OUTCOME>&apos;(5.0, 10.0]&apos;</OUTCOME>
	<OUTCOME>&apos;(10.0, 21.0]&apos;</OUTCOME>
	<PROPERTY>position = (876,384)</PROPERTY>
</VARIABLE>
<VARIABLE TYPE="nature">
	<NAME>Adults</NAME>
	<OUTCOME>&apos;(-0.001, 1.0]&apos;</OUTCOME>
	<OUTCOME>&apos;(1.0, 4.0]&apos;</OUTCOME>
	<PROPERTY>position = (1168,576)</PROPERTY>
</VARIABLE>
<VARIABLE TYPE="nature">
	<NAME>CancelRate</NAME>
	<OUTCOME>&apos;(-0.001, 0.5]&apos;</OUTCOME>
	<OUTCOME>&apos;(0.5, 1.0]&apos;</OUTCOME>
	<PROPERTY>position = (1314,864)</PROPERTY>
</VARIABLE>
<VARIABLE TYPE="nature">
	<NAME>Minors</NAME>
	<OUTCOME>&apos;(-0.001, 2.0]&apos;</OUTCOME>
	<OUTCOME>&apos;(2.0, 10.0]&apos;</OUTCOME>
	<PROPERTY>position = (876,1056)</PROPERTY>
</VARIABLE>
<VARIABLE TYPE="nature">
	<NAME>Staying</NAME>
	<OUTCOME>&apos;(-0.001, 3.0]&apos;</OUTCOME>
	<OUTCOME>&apos;(3.0, 7.0]&apos;</OUTCOME>
	<OUTCOME>&apos;(7.0, 15.0]&apos;</OUTCOME>
	<OUTCOME>&apos;(15.0, 57.0]&apos;</OUTCOME>
	<PROPERTY>position = (876,96)</PROPERTY>
</VARIABLE>
<DEFINITION>
<FOR>IsCanceled</FOR>
	<GIVEN>DepositType</GIVEN>
	<GIVEN>Staying</GIVEN>
	<GIVEN>IsRepeatedGuest</GIVEN>
<TABLE>
0.712029484483675 0.2879705155163251 
0.8111052072263549 0.18889479277364507 
0.6628518481418412 0.3371481518581589 
0.6907894736842105 0.3092105263157895 
0.4798387096774194 0.5201612903225806 
0.8636363636363636 0.13636363636363635 
0.23504273504273504 0.7649572649572649 
0.3 0.7 
0.0013864042933810375 0.998613595706619 
0.05555555555555555 0.9444444444444444 
0.003992628992628993 0.996007371007371 
0.5 0.5 
0.5 0.5 
0.5 0.5 
0.5 0.5 
0.5 0.5 
0.5 0.5 
0.5 0.5 
0.08333333333333333 0.9166666666666666 
0.5 0.5 
0.125 0.875 
0.5 0.5 
0.5 0.5 
0.5 0.5 
</TABLE>
</DEFINITION>
<DEFINITION>
<FOR>Meal</FOR>
	<GIVEN>CustomerType</GIVEN>
	<GIVEN>DepositType</GIVEN>
	<GIVEN>DistributionChannel</GIVEN>
<TABLE>
0.04390665297844105 0.7184190099406565 0.2376618173623457 1.2519718556726845E-5 
0.03910191725529768 0.9020349815001681 0.05743356878573831 0.001429532458795829 
0.25 0.25 0.25 0.25 
0.0022156573116691287 0.9908911866075825 0.0066469719350073855 2.461841457410143E-4 
0.002564102564102564 0.5923076923076923 0.4025641025641026 0.002564102564102564 
0.06833806948391237 0.9315702630855257 4.5833715280960675E-5 4.5833715280960675E-5 
0.003703703703703704 0.9888888888888889 0.003703703703703704 0.003703703703703704 
0.25 0.25 0.25 0.25 
0.001984126984126984 0.9702380952380952 0.025793650793650792 0.001984126984126984 
0.25 0.25 0.25 0.25 
0.10714285714285714 0.5357142857142857 0.32142857142857145 0.03571428571428571 
0.16666666666666666 0.5 0.16666666666666666 0.16666666666666666 
0.25 0.25 0.25 0.25 
0.25 0.25 0.25 0.25 
0.25 0.25 0.25 0.25 
0.21701091058807384 0.7543059081863721 0.026178549372126537 0.0025046318534275715 
0.03654743390357698 0.921461897356143 0.04121306376360809 7.776049766718507E-4 
0.08333333333333333 0.75 0.08333333333333333 0.08333333333333333 
0.011638733705772812 0.9799813780260708 0.007914338919925512 4.655493482309125E-4 
0.25 0.25 0.25 0.25 
0.46596596596596596 0.5330330330330331 5.005005005005005E-4 5.005005005005005E-4 
0.07142857142857142 0.7857142857142857 0.07142857142857142 0.07142857142857142 
0.25 0.25 0.25 0.25 
0.013157894736842105 0.9605263157894737 0.013157894736842105 0.013157894736842105 
0.25 0.25 0.25 0.25 
0.1 0.7 0.1 0.1 
0.25 0.25 0.25 0.25 
0.25 0.25 0.25 0.25 
0.08333333333333333 0.75 0.08333333333333333 0.08333333333333333 
0.25 0.25 0.25 0.25 
0.0071184510250569474 0.8915148063781321 0.10108200455580865 2.847380410022779E-4 
0.0625 0.6875 0.1875 0.0625 
0.25 0.25 0.25 0.25 
0.25 0.25 0.25 0.25 
0.25 0.25 0.25 0.25 
9.225092250922509E-4 0.9972324723247232 9.225092250922509E-4 9.225092250922509E-4 
0.25 0.25 0.25 0.25 
0.25 0.25 0.25 0.25 
0.25 0.25 0.25 0.25 
0.25 0.25 0.25 0.25 
0.25 0.25 0.25 0.25 
0.25 0.25 0.25 0.25 
0.25 0.25 0.25 0.25 
0.25 0.25 0.25 0.25 
0.25 0.25 0.25 0.25 
0.03289473684210526 0.8135964912280702 0.1513157894736842 0.0021929824561403508 
0.028846153846153848 0.8942307692307693 0.0673076923076923 0.009615384615384616 
0.25 0.25 0.25 0.25 
0.02631578947368421 0.868421052631579 0.07894736842105263 0.02631578947368421 
0.25 0.25 0.25 0.25 
0.25 0.25 0.25 0.25 
0.25 0.25 0.25 0.25 
0.25 0.25 0.25 0.25 
0.25 0.25 0.25 0.25 
0.25 0.25 0.25 0.25 
0.25 0.25 0.25 0.25 
0.25 0.25 0.25 0.25 
0.25 0.25 0.25 0.25 
0.25 0.25 0.25 0.25 
0.25 0.25 0.25 0.25 
</TABLE>
</DEFINITION>
<DEFINITION>
<FOR>DistributionChannel</FOR>
	<GIVEN>IsRepeatedGuest</GIVEN>
	<GIVEN>IsCanceled</GIVEN>
	<GIVEN>Staying</GIVEN>
<TABLE>
0.8232671260640454 0.123664369679773 1.6214025131738956E-5 0.0483664369679773 0.004685853263072558 
0.8865773079101378 0.09949027751557485 3.775722106852936E-5 0.013177270152916745 7.173872003020578E-4 
0.7581395348837209 0.1813953488372093 9.302325581395349E-4 0.0586046511627907 9.302325581395349E-4 
0.559322033898305 0.1864406779661017 0.01694915254237288 0.22033898305084745 0.01694915254237288 
0.93682963464427 0.033743045124711754 1.4808859929340583E-4 0.028031056294823244 0.0012481753369015633 
0.9578922184341169 0.03750224295711466 1.7943656917279743E-4 0.003648543573180214 7.775584664154554E-4 
0.8719043552519214 0.11357813834329633 8.539709649871904E-4 0.011101622544833475 0.0025619128949615714 
0.8579234972677595 0.10382513661202186 0.00546448087431694 0.01639344262295082 0.01639344262295082 
0.21645445641527913 0.2007835455435847 3.26477309826967E-4 0.5801501795625204 0.002285341168788769 
0.3394495412844037 0.11926605504587157 0.009174311926605505 0.5229357798165137 0.009174311926605505 
0.30434782608695654 0.21739130434782608 0.043478260869565216 0.391304347826087 0.043478260869565216 
0.14285714285714285 0.42857142857142855 0.14285714285714285 0.14285714285714285 0.14285714285714285 
0.6926770708283313 0.10204081632653061 0.0012004801920768306 0.2028811524609844 0.0012004801920768306 
0.6862745098039216 0.13725490196078433 0.0196078431372549 0.13725490196078433 0.0196078431372549 
0.14285714285714285 0.42857142857142855 0.14285714285714285 0.14285714285714285 0.14285714285714285 
0.45454545454545453 0.2727272727272727 0.09090909090909091 0.09090909090909091 0.09090909090909091 
</TABLE>
</DEFINITION>
<DEFINITION>
<FOR>IsRepeatedGuest</FOR>
<TABLE>
0.9743794985566803 0.025620501443319763 
</TABLE>
</DEFINITION>
<DEFINITION>
<FOR>DepositType</FOR>
	<GIVEN>Staying</GIVEN>
	<GIVEN>IsRepeatedGuest</GIVEN>
<TABLE>
0.7945234401534832 0.2052470694070885 2.2949043942829342E-4 
0.9676009256878375 0.032141938801748524 2.5713551041398817E-4 
0.9243928976549297 0.07535245503159942 2.5464731347084286E-4 
0.9869281045751634 0.006535947712418301 0.006535947712418301 
0.9964269763287181 4.4662795891022776E-4 0.0031263957123715946 
0.9130434782608695 0.043478260869565216 0.043478260869565216 
0.9914893617021276 0.00425531914893617 0.00425531914893617 
0.8181818181818182 0.09090909090909091 0.09090909090909091 
</TABLE>
</DEFINITION>
<DEFINITION>
<FOR>CustomerType</FOR>
	<GIVEN>LeadTime</GIVEN>
	<GIVEN>DepositType</GIVEN>
	<GIVEN>TotalOfSpecialRequests</GIVEN>
<TABLE>
0.8311646951774341 0.1519108280254777 0.01105550500454959 0.005868971792538672 
0.8928022822032039 0.05409260478384902 0.04750932631116963 0.005595786701777485 
0.8396923076923077 0.029846153846153845 0.124 0.006461538461538461 
0.8767857142857143 0.030357142857142857 0.07678571428571429 0.01607142857142857 
0.875 0.06944444444444445 0.013888888888888888 0.041666666666666664 
0.5 0.16666666666666666 0.16666666666666666 0.16666666666666666 
0.9429592788312092 0.05672987255206714 1.5542430836182778E-4 1.5542430836182778E-4 
0.75 0.15 0.05 0.05 
0.25 0.25 0.25 0.25 
0.25 0.25 0.25 0.25 
0.25 0.25 0.25 0.25 
0.25 0.25 0.25 0.25 
0.125 0.625 0.125 0.125 
0.5 0.16666666666666666 0.16666666666666666 0.16666666666666666 
0.25 0.25 0.25 0.25 
0.25 0.25 0.25 0.25 
0.25 0.25 0.25 0.25 
0.25 0.25 0.25 0.25 
0.5802078356426182 0.3898112756808409 0.02514333492594362 0.004837553750597229 
0.8303412726626378 0.13908638464273018 0.026573053679345895 0.003999289015286171 
0.8827132486388385 0.058303085299455534 0.055127041742286755 0.003856624319419238 
0.8787528868360277 0.04503464203233257 0.07274826789838337 0.003464203233256351 
0.9146341463414634 0.06097560975609756 0.012195121951219513 0.012195121951219513 
0.8125 0.0625 0.0625 0.0625 
0.8394643908181283 0.001324308416715715 0.1590641553855209 1.4714537963507945E-4 
0.875 0.041666666666666664 0.041666666666666664 0.041666666666666664 
0.16666666666666666 0.5 0.16666666666666666 0.16666666666666666 
0.25 0.25 0.25 0.25 
0.25 0.25 0.25 0.25 
0.25 0.25 0.25 0.25 
0.25 0.5833333333333334 0.08333333333333333 0.08333333333333333 
0.16666666666666666 0.5 0.16666666666666666 0.16666666666666666 
0.25 0.25 0.25 0.25 
0.5 0.16666666666666666 0.16666666666666666 0.16666666666666666 
0.25 0.25 0.25 0.25 
0.25 0.25 0.25 0.25 
0.7061871616395978 0.27463263727764886 0.014462490332559938 0.004717710750193348 
0.8741913123844732 0.06665896487985212 0.05233364140480592 0.006816081330868762 
0.8393264840182648 0.04651826484018265 0.10930365296803653 0.0048515981735159815 
0.87 0.027142857142857142 0.09857142857142857 0.004285714285714286 
0.859375 0.015625 0.109375 0.015625 
0.5 0.05555555555555555 0.3888888888888889 0.05555555555555555 
0.9981665793609219 0.0013095861707700367 2.6191723415400735E-4 2.6191723415400735E-4 
0.25 0.25 0.25 0.25 
0.25 0.25 0.25 0.25 
0.25 0.25 0.25 0.25 
0.25 0.25 0.25 0.25 
0.25 0.25 0.25 0.25 
0.16666666666666666 0.5 0.16666666666666666 0.16666666666666666 
0.25 0.25 0.25 0.25 
0.625 0.125 0.125 0.125 
0.25 0.25 0.25 0.25 
0.25 0.25 0.25 0.25 
0.25 0.25 0.25 0.25 
0.5560104529616725 0.43893728222996514 0.0027003484320557492 0.0023519163763066203 
0.7703909266409267 0.2211631274131274 0.0068774131274131275 0.0015685328185328184 
0.8679411764705882 0.10735294117647058 0.01852941176470588 0.006176470588235294 
0.8841642228739003 0.08357771260997067 0.024926686217008796 0.007331378299120235 
0.8469387755102041 0.11224489795918367 0.01020408163265306 0.030612244897959183 
0.5 0.35714285714285715 0.07142857142857142 0.07142857142857142 
0.9579940784603997 0.04163582531458179 1.850481125092524E-4 1.850481125092524E-4 
0.25 0.25 0.25 0.25 
0.16666666666666666 0.5 0.16666666666666666 0.16666666666666666 
0.25 0.25 0.25 0.25 
0.25 0.25 0.25 0.25 
0.25 0.25 0.25 0.25 
0.7857142857142857 0.07142857142857142 0.07142857142857142 0.07142857142857142 
0.25 0.25 0.25 0.25 
0.25 0.25 0.25 0.25 
0.25 0.25 0.25 0.25 
0.25 0.25 0.25 0.25 
0.25 0.25 0.25 0.25 
0.2920037336652147 0.7036403235843186 0.002955818294959552 0.0014001244555071563 
0.5320831450519656 0.44893809308630817 0.013782196113872571 0.005196565747853593 
0.8300852618757613 0.14555420219244825 0.021315468940316686 0.0030450669914738123 
0.8333333333333334 0.15079365079365079 0.013227513227513227 0.0026455026455026454 
0.91 0.07 0.01 0.01 
0.6111111111111112 0.2777777777777778 0.05555555555555555 0.05555555555555555 
0.43802601377199696 0.5612088752869167 3.8255547054322876E-4 3.8255547054322876E-4 
0.25 0.25 0.25 0.25 
0.25 0.25 0.25 0.25 
0.25 0.25 0.25 0.25 
0.25 0.25 0.25 0.25 
0.25 0.25 0.25 0.25 
0.25 0.25 0.25 0.25 
0.7 0.1 0.1 0.1 
0.25 0.25 0.25 0.25 
0.25 0.25 0.25 0.25 
0.25 0.25 0.25 0.25 
0.25 0.25 0.25 0.25 
0.010670731707317074 0.9832317073170732 0.001524390243902439 0.004573170731707317 
9.242144177449168E-4 0.9972273567467652 9.242144177449168E-4 9.242144177449168E-4 
0.010416666666666666 0.96875 0.010416666666666666 0.010416666666666666 
0.1 0.7 0.1 0.1 
0.25 0.25 0.25 0.25 
0.25 0.25 0.25 0.25 
0.9892966360856269 0.00764525993883792 0.0015290519877675841 0.0015290519877675841 
0.25 0.25 0.25 0.25 
0.25 0.25 0.25 0.25 
0.25 0.25 0.25 0.25 
0.25 0.25 0.25 0.25 
0.25 0.25 0.25 0.25 
0.25 0.25 0.25 0.25 
0.25 0.25 0.25 0.25 
0.25 0.25 0.25 0.25 
0.25 0.25 0.25 0.25 
0.25 0.25 0.25 0.25 
0.25 0.25 0.25 0.25 
</TABLE>
</DEFINITION>
<DEFINITION>
<FOR>TotalOfSpecialRequests</FOR>
	<GIVEN>DepositType</GIVEN>
	<GIVEN>IsCanceled</GIVEN>
	<GIVEN>Adults</GIVEN>
<TABLE>
0.6722637979420019 0.2371842843779233 0.07478952291861553 0.013797942001870907 0.0017305893358278766 2.3386342376052386E-4 
0.4056287661204032 0.3987863940981022 0.1577546882919412 0.03267725404066002 0.004491186574308723 6.617108745846709E-4 
0.7441592629154327 0.18311944718657452 0.06235603817045081 0.00970714050674564 4.935834155972359E-4 1.6452780519907864E-4 
0.6533902736621928 0.2408052989367265 0.08997152983557027 0.014554645284992156 0.0011910987159374819 8.715356458079135E-5 
0.8333333333333334 0.07142857142857142 0.023809523809523808 0.023809523809523808 0.023809523809523808 0.023809523809523808 
0.5 0.05555555555555555 0.2777777777777778 0.05555555555555555 0.05555555555555555 0.05555555555555555 
0.9962406015037594 0.00296794618124258 1.9786307874950534E-4 1.9786307874950534E-4 1.9786307874950534E-4 1.9786307874950534E-4 
0.9987891116923375 0.001017146178436501 4.8435532306500046E-5 4.8435532306500046E-5 4.8435532306500046E-5 4.8435532306500046E-5 
0.5833333333333334 0.08333333333333333 0.08333333333333333 0.08333333333333333 0.08333333333333333 0.08333333333333333 
0.4166666666666667 0.25 0.08333333333333333 0.08333333333333333 0.08333333333333333 0.08333333333333333 
0.375 0.125 0.125 0.125 0.125 0.125 
0.40625 0.28125 0.15625 0.09375 0.03125 0.03125 
</TABLE>
</DEFINITION>
<DEFINITION>
<FOR>WasInWaitingList</FOR>
	<GIVEN>DepositType</GIVEN>
	<GIVEN>CustomerType</GIVEN>
	<GIVEN>LeadTime</GIVEN>
<TABLE>
0.9996968472109944 3.031527890056589E-4 
0.9996217533832058 3.7824661679414977E-4 
0.9999507583218437 4.924167815639157E-5 
0.9995733788395904 4.266211604095563E-4 
0.999167776298269 8.322237017310253E-4 
0.375 0.625 
0.9911347517730497 0.008865248226950355 
0.8918951132300358 0.10810488676996424 
0.9886258124419685 0.01137418755803157 
0.9111689022721051 0.08883109772789488 
0.8448781919577341 0.1551218080422659 
0.9281009879253568 0.07189901207464325 
0.9991071428571429 8.928571428571428E-4 
0.9990234375 9.765625E-4 
0.9990925589836661 9.074410163339383E-4 
0.9939759036144579 0.006024096385542169 
0.9915254237288136 0.00847457627118644 
0.5 0.5 
0.9952380952380953 0.004761904761904762 
0.9930555555555556 0.006944444444444444 
0.9927536231884058 0.007246376811594203 
0.9848484848484849 0.015151515151515152 
0.8611111111111112 0.1388888888888889 
0.75 0.25 
0.998191384413022 0.0018086155869779677 
0.5646175340551869 0.4353824659448131 
0.8003672612801679 0.19963273871983211 
0.8881807647740441 0.11181923522595597 
0.9153577661431065 0.08464223385689354 
0.8595679012345679 0.1404320987654321 
0.9972826086956522 0.002717391304347826 
0.9166666666666666 0.08333333333333333 
0.5 0.5 
0.9956140350877193 0.0043859649122807015 
0.9993188010899182 6.811989100817438E-4 
0.8333333333333334 0.16666666666666666 
0.5 0.5 
0.9990757855822551 9.242144177449168E-4 
0.5 0.5 
0.5 0.5 
0.5 0.5 
0.5 0.5 
0.5 0.5 
0.5 0.5 
0.5 0.5 
0.5 0.5 
0.5 0.5 
0.5 0.5 
0.75 0.25 
0.8333333333333334 0.16666666666666666 
0.8333333333333334 0.16666666666666666 
0.9166666666666666 0.08333333333333333 
0.875 0.125 
0.5 0.5 
0.8333333333333334 0.16666666666666666 
0.7 0.3 
0.75 0.25 
0.5 0.5 
0.5 0.5 
0.5 0.5 
0.5 0.5 
0.5 0.5 
0.5 0.5 
0.5 0.5 
0.5 0.5 
0.5 0.5 
0.5 0.5 
0.5 0.5 
0.5 0.5 
0.5 0.5 
0.5 0.5 
0.5 0.5 
</TABLE>
</DEFINITION>
<DEFINITION>
<FOR>Season</FOR>
	<GIVEN>ADR</GIVEN>
	<GIVEN>LeadTime</GIVEN>
	<GIVEN>CustomerType</GIVEN>
<TABLE>
0.1654979730470034 0.22334830722033527 0.4246192615317191 0.18653445820094225 
0.3323153803442532 0.3023320377568018 0.2812326485285952 0.0841199333703498 
0.5531177829099307 0.39376443418013857 0.04503464203233257 0.008083140877598153 
0.25735294117647056 0.41911764705882354 0.25735294117647056 0.0661764705882353 
0.1355943496801706 0.28644722814498935 0.3193630063965885 0.2585954157782516 
0.3078725398313027 0.27507029053420806 0.23820681037175884 0.1788503592627304 
0.5201446280991735 0.40857438016528924 0.06456611570247933 0.006714876033057851 
0.008333333333333333 0.8416666666666667 0.14166666666666666 0.008333333333333333 
0.13139442231075696 0.320398406374502 0.3787250996015936 0.16948207171314741 
0.25150240384615385 0.3055889423076923 0.3272235576923077 0.11568509615384616 
0.3843612334801762 0.525330396475771 0.08039647577092511 0.009911894273127754 
0.2625 0.6625 0.0625 0.0125 
0.29975781594011447 0.2312857771906649 0.1828489652135623 0.2861074416556583 
0.2777986476333584 0.2635236664162284 0.20003756574004508 0.25864012021036814 
0.007042253521126761 0.2887323943661972 0.2605633802816901 0.44366197183098594 
0.020833333333333332 0.0625 0.5625 0.3541666666666667 
0.3165070007369197 0.42114959469417834 0.13964627855563744 0.12269712601326456 
0.6036857781087118 0.23510796723752792 0.02289650037230082 0.13830975428145942 
0.6724137931034483 0.017241379310344827 0.017241379310344827 0.29310344827586204 
0.08333333333333333 0.4166666666666667 0.4166666666666667 0.08333333333333333 
0.0032679738562091504 0.4019607843137255 0.19934640522875818 0.3954248366013072 
0.002840909090909091 0.9914772727272727 0.002840909090909091 0.002840909090909091 
0.25 0.25 0.25 0.25 
0.25 0.25 0.25 0.25 
0.3422657441069544 0.10009381963175795 0.06936789023103085 0.4882725460302568 
0.3161559888579387 0.18245125348189414 0.057103064066852366 0.44428969359331477 
0.54 0.428 0.004 0.028 
0.36486486486486486 0.013513513513513514 0.14864864864864866 0.47297297297297297 
0.3266469594594595 0.15899493243243243 0.06088119369369369 0.4534769144144144 
0.22405189620758484 0.22904191616766467 0.020459081836327345 0.5264471057884231 
0.3160919540229885 0.5689655172413793 0.07471264367816093 0.040229885057471264 
0.5 0.1 0.3 0.1 
0.3308573474136388 0.13361374619652766 0.09387864685877931 0.44165025953105425 
0.24239350912778904 0.29310344827586204 0.061866125760649086 0.4026369168356998 
0.4484536082474227 0.39690721649484534 0.03608247422680412 0.11855670103092783 
0.203125 0.453125 0.109375 0.234375 
0.5069558101472995 0.08404255319148936 0.021849427168576106 0.387152209492635 
0.37092391304347827 0.04483695652173913 0.0022644927536231885 0.5819746376811594 
0.23333333333333334 0.03333333333333333 0.1 0.6333333333333333 
0.20833333333333334 0.125 0.041666666666666664 0.625 
0.5395532805956259 0.1137738483015356 0.029548627268496976 0.31712424383434157 
0.4838598901098901 0.13289835164835165 0.001717032967032967 0.38152472527472525 
0.5303030303030303 0.015151515151515152 0.015151515151515152 0.4393939393939394 
0.23333333333333334 0.1 0.03333333333333333 0.6333333333333333 
0.4604519774011299 0.2627118644067797 0.002824858757062147 0.2740112994350282 
0.8047297297297298 0.019594594594594596 6.756756756756757E-4 0.175 
0.25 0.25 0.25 0.25 
0.5 0.16666666666666666 0.16666666666666666 0.16666666666666666 
0.3834745762711864 0.10805084745762712 0.05296610169491525 0.4555084745762712 
0.125 0.125 0.125 0.625 
0.07142857142857142 0.7857142857142857 0.07142857142857142 0.07142857142857142 
0.3 0.1 0.1 0.5 
0.47151898734177217 0.06645569620253164 0.015822784810126583 0.4462025316455696 
0.08333333333333333 0.08333333333333333 0.08333333333333333 0.75 
0.25 0.25 0.25 0.25 
0.25 0.25 0.25 0.25 
0.47794117647058826 0.12009803921568628 0.031862745098039214 0.3700980392156863 
0.1 0.3 0.1 0.5 
0.1 0.7 0.1 0.1 
0.25 0.25 0.25 0.25 
0.5833333333333334 0.016666666666666666 0.0033333333333333335 0.39666666666666667 
0.7 0.1 0.1 0.1 
0.25 0.25 0.25 0.25 
0.25 0.25 0.25 0.25 
0.7628205128205128 0.019230769230769232 0.00641025641025641 0.21153846153846154 
0.5 0.16666666666666666 0.16666666666666666 0.16666666666666666 
0.25 0.25 0.25 0.25 
0.25 0.25 0.25 0.25 
0.25 0.25 0.25 0.25 
0.25 0.25 0.25 0.25 
0.25 0.25 0.25 0.25 
0.25 0.25 0.25 0.25 
</TABLE>
</DEFINITION>
<DEFINITION>
<FOR>ADR</FOR>
	<GIVEN>CustomerType</GIVEN>
	<GIVEN>CancelRate</GIVEN>
	<GIVEN>LeadTime</GIVEN>
<TABLE>
0.5026063178283533 0.48403452302959526 0.013359159142051442 
0.49004153796996486 0.4988461675009763 0.011112294529058828 
0.49547001370044635 0.48663101604278075 0.01789897025677288 
0.40627828323726956 0.5795741437622064 0.014147573000523984 
0.34838016275142025 0.6281283586672808 0.02349147858129894 
0.46259541984732827 0.5358778625954198 0.0015267175572519084 
0.9100449775112444 0.08845577211394302 0.0014992503748125937 
0.8852097130242825 0.11405445180279618 7.358351729212656E-4 
0.8919279519679787 0.10740493662441628 6.6711140760507E-4 
0.9140495867768595 0.08429752066115702 0.001652892561983471 
0.6825885978428351 0.31587057010785824 0.0015408320493066256 
0.3333333333333333 0.3333333333333333 0.3333333333333333 
0.8143263511766227 0.1843806568399276 0.0012929919834497026 
0.7508367422833767 0.24804760133878764 0.0011156563778356265 
0.7642567406346934 0.23407301360057264 0.0016702457647339538 
0.6945173318602403 0.30451595083551997 9.667173042397459E-4 
0.5347847438205926 0.4647241774431167 4.910787362907187E-4 
0.19102353585112206 0.8084291187739464 5.473453749315818E-4 
0.9912087912087912 0.006593406593406593 0.002197802197802198 
0.9942028985507246 0.002898550724637681 0.002898550724637681 
0.968503937007874 0.023622047244094488 0.007874015748031496 
0.9932203389830508 0.003389830508474576 0.003389830508474576 
0.9668965517241379 0.03264367816091954 4.597701149425287E-4 
0.3333333333333333 0.3333333333333333 0.3333333333333333 
0.7699481865284974 0.22072538860103627 0.00932642487046632 
0.8836140888208269 0.11485451761102604 0.0015313935681470138 
0.8269441401971522 0.16538882803943045 0.007667031763417305 
0.8282208588957055 0.1656441717791411 0.006134969325153374 
0.46218487394957986 0.5294117647058824 0.008403361344537815 
0.3333333333333333 0.3333333333333333 0.3333333333333333 
0.7610062893081762 0.22012578616352202 0.018867924528301886 
0.9326460481099657 0.06666666666666667 6.872852233676976E-4 
0.7823834196891192 0.21243523316062177 0.0051813471502590676 
0.7142857142857143 0.14285714285714285 0.14285714285714285 
0.3333333333333333 0.3333333333333333 0.3333333333333333 
0.3333333333333333 0.3333333333333333 0.3333333333333333 
0.6 0.3641025641025641 0.035897435897435895 
0.7956204379562044 0.19708029197080293 0.0072992700729927005 
0.5474452554744526 0.44525547445255476 0.0072992700729927005 
0.6716417910447762 0.31343283582089554 0.014925373134328358 
0.24324324324324326 0.7297297297297297 0.02702702702702703 
0.2 0.6 0.2 
0.8947368421052632 0.05263157894736842 0.05263157894736842 
0.8181818181818182 0.09090909090909091 0.09090909090909091 
0.6 0.2 0.2 
0.3333333333333333 0.3333333333333333 0.3333333333333333 
0.3333333333333333 0.3333333333333333 0.3333333333333333 
0.3333333333333333 0.3333333333333333 0.3333333333333333 
</TABLE>
</DEFINITION>
<DEFINITION>
<FOR>LeadTime</FOR>
	<GIVEN>DistributionChannel</GIVEN>
	<GIVEN>IsCanceled</GIVEN>
	<GIVEN>Staying</GIVEN>
<TABLE>
0.18010575016523464 0.28363982737840676 0.18655962054352473 0.19744566696473698 0.12291512771665176 0.029334007231445122 
0.07784202023637446 0.32101862086557265 0.1763880622396055 0.2818212737012159 0.14059178641272 0.002338236544511521 
0.08595641646489104 0.2627118644067797 0.10048426150121065 0.31840193704600483 0.23123486682808717 0.0012106537530266344 
0.18421052631578946 0.18421052631578946 0.23684210526315788 0.18421052631578946 0.18421052631578946 0.02631578947368421 
0.30574625534950073 0.2392787089871612 0.18257400142653352 0.17758113409415122 0.07442492867332383 0.020394971469329528 
0.37355176280054814 0.21259499190232964 0.1907935716955276 0.12950043602840414 0.09337236825713217 1.8686931605830322E-4 
0.39278752436647174 0.20175438596491227 0.2309941520467836 0.13157894736842105 0.04191033138401559 9.746588693957114E-4 
0.5602409638554217 0.13855421686746988 0.21084337349397592 0.06626506024096386 0.018072289156626505 0.006024096385542169 
0.5186757215619694 0.14928450157652196 0.19755032743148193 0.10029105020616057 0.03407712830463255 1.2127091923356779E-4 
0.1768476621417798 0.2779034690799397 0.1557315233785822 0.2877073906485671 0.10143288084464555 3.770739064856712E-4 
0.3088235294117647 0.11274509803921569 0.22058823529411764 0.2696078431372549 0.08333333333333333 0.004901960784313725 
0.7222222222222222 0.05555555555555555 0.05555555555555555 0.05555555555555555 0.05555555555555555 0.05555555555555555 
0.5694774346793349 0.17399049881235154 0.17042755344418054 0.0671021377672209 0.01840855106888361 5.938242280285036E-4 
0.45297805642633227 0.1865203761755486 0.2084639498432602 0.12695924764890282 0.023510971786833857 0.001567398119122257 
0.4785714285714286 0.16428571428571428 0.2642857142857143 0.07857142857142857 0.007142857142857143 0.007142857142857143 
0.34615384615384615 0.11538461538461539 0.4230769230769231 0.038461538461538464 0.038461538461538464 0.038461538461538464 
0.16666666666666666 0.16666666666666666 0.16666666666666666 0.16666666666666666 0.16666666666666666 0.16666666666666666 
0.16666666666666666 0.16666666666666666 0.16666666666666666 0.16666666666666666 0.16666666666666666 0.16666666666666666 
0.16666666666666666 0.16666666666666666 0.16666666666666666 0.16666666666666666 0.16666666666666666 0.16666666666666666 
0.16666666666666666 0.16666666666666666 0.16666666666666666 0.16666666666666666 0.16666666666666666 0.16666666666666666 
0.5833333333333334 0.08333333333333333 0.08333333333333333 0.08333333333333333 0.08333333333333333 0.08333333333333333 
0.375 0.125 0.125 0.125 0.125 0.125 
0.16666666666666666 0.16666666666666666 0.16666666666666666 0.16666666666666666 0.16666666666666666 0.16666666666666666 
0.16666666666666666 0.16666666666666666 0.16666666666666666 0.16666666666666666 0.16666666666666666 0.16666666666666666 
0.559823677581864 0.10852225020990765 0.24622166246851385 0.039672544080604534 0.04554995801847187 2.0990764063811922E-4 
0.33414634146341465 0.15365853658536585 0.3 0.16829268292682928 0.041463414634146344 0.0024390243902439024 
0.4342105263157895 0.013157894736842105 0.5131578947368421 0.013157894736842105 0.013157894736842105 0.013157894736842105 
0.5 0.16666666666666666 0.05555555555555555 0.16666666666666666 0.05555555555555555 0.05555555555555555 
0.534712950600801 0.23431241655540722 0.19826435246995994 0.004672897196261682 0.027369826435246995 6.675567423230974E-4 
0.6527777777777778 0.125 0.18055555555555555 0.013888888888888888 0.013888888888888888 0.013888888888888888 
0.2777777777777778 0.16666666666666666 0.3888888888888889 0.05555555555555555 0.05555555555555555 0.05555555555555555 
0.375 0.125 0.125 0.125 0.125 0.125 
0.49 0.21 0.29 0.0033333333333333335 0.0033333333333333335 0.0033333333333333335 
0.125 0.125 0.5416666666666666 0.125 0.041666666666666664 0.041666666666666664 
0.16666666666666666 0.16666666666666666 0.16666666666666666 0.16666666666666666 0.16666666666666666 0.16666666666666666 
0.16666666666666666 0.16666666666666666 0.16666666666666666 0.16666666666666666 0.16666666666666666 0.16666666666666666 
0.640625 0.109375 0.203125 0.015625 0.015625 0.015625 
0.2777777777777778 0.16666666666666666 0.3888888888888889 0.05555555555555555 0.05555555555555555 0.05555555555555555 
0.375 0.125 0.125 0.125 0.125 0.125 
0.125 0.125 0.375 0.125 0.125 0.125 
</TABLE>
</DEFINITION>
<DEFINITION>
<FOR>BookingChanges</FOR>
	<GIVEN>Staying</GIVEN>
	<GIVEN>IsCanceled</GIVEN>
<TABLE>
0.999134881277904 6.333904929631861E-4 2.3172822913287297E-4 
0.9995425719929306 3.950514606507953E-4 6.237654641854663E-5 
0.9980441569187949 0.001542107044796329 4.137360364087712E-4 
0.9992841376841854 6.562071228300424E-4 5.9655192984549304E-5 
0.9816681943171403 0.015582034830430797 0.002749770852428964 
0.9982920580700256 8.539709649871904E-4 8.539709649871904E-4 
0.6610169491525424 0.15254237288135594 0.1864406779661017 
0.9893048128342246 0.0053475935828877 0.0053475935828877 
</TABLE>
</DEFINITION>
<DEFINITION>
<FOR>Adults</FOR>
	<GIVEN>DistributionChannel</GIVEN>
	<GIVEN>LeadTime</GIVEN>
	<GIVEN>IsCanceled</GIVEN>
<TABLE>
0.30836018617973504 0.691639813820265 
0.16879453681710213 0.8312054631828979 
0.1432212484349848 0.8567787515650152 
0.18134390651085142 0.8186560934891486 
0.23091934084995663 0.7690806591500433 
0.18457132939951407 0.815428670600486 
0.14219537938313592 0.8578046206168641 
0.10961727183513248 0.8903827281648675 
0.1670059027071036 0.8329940972928964 
0.07476444080294961 0.9252355591970504 
0.16432225063938619 0.8356777493606138 
0.018518518518518517 0.9814814814814815 
0.3616182572614108 0.6383817427385892 
0.23978819969742815 0.7602118003025718 
0.12311557788944724 0.8768844221105527 
0.20871559633027523 0.7912844036697247 
0.25743048897411314 0.7425695110258869 
0.26824034334763946 0.7317596566523605 
0.07238442822384428 0.9276155717761557 
0.10294117647058823 0.8970588235294118 
0.06537102473498234 0.9346289752650176 
0.15217391304347827 0.8478260869565217 
0.5 0.5 
0.5 0.5 
0.5 0.5 
0.1 0.9 
0.5 0.5 
0.5 0.5 
0.5 0.5 
0.5 0.5 
0.5 0.5 
0.5 0.5 
0.5 0.5 
0.5 0.5 
0.5 0.5 
0.5 0.5 
0.8604078762306611 0.13959212376933897 
0.7177985948477752 0.2822014051522248 
0.6890034364261168 0.31099656357388317 
0.17955801104972377 0.8204419889502762 
0.787856071964018 0.212143928035982 
0.48417721518987344 0.5158227848101266 
0.8576923076923076 0.1423076923076923 
0.625 0.375 
0.7222222222222222 0.2777777777777778 
0.8809523809523809 0.11904761904761904 
0.5 0.5 
0.5 0.5 
0.9533333333333334 0.04666666666666667 
0.8958333333333334 0.10416666666666667 
0.8636363636363636 0.13636363636363635 
0.5 0.5 
0.95 0.05 
0.6818181818181818 0.3181818181818182 
0.75 0.25 
0.5 0.5 
0.5 0.5 
0.5 0.5 
0.5 0.5 
0.5 0.5 
</TABLE>
</DEFINITION>
<DEFINITION>
<FOR>CancelRate</FOR>
	<GIVEN>IsCanceled</GIVEN>
	<GIVEN>CustomerType</GIVEN>
	<GIVEN>DepositType</GIVEN>
<TABLE>
0.9989940260624632 0.0010059739375367568 
0.5 0.5 
0.5 0.5 
0.9996380891105034 3.6191088949654175E-4 
0.98 0.02 
0.9285714285714286 0.07142857142857142 
0.9995819397993311 4.180602006688963E-4 
0.5 0.5 
0.5 0.5 
0.9981132075471698 0.0018867924528301887 
0.5 0.5 
0.5 0.5 
0.9714168143833882 0.0285831856166118 
0.8317686653086529 0.1682313346913471 
0.9642857142857143 0.03571428571428571 
0.7739885892116183 0.22601141078838174 
0.19556650246305418 0.8044334975369458 
0.75 0.25 
0.36130742049469966 0.6386925795053003 
9.242144177449168E-4 0.9990757855822551 
0.5 0.5 
0.55 0.45 
0.5 0.5 
0.5 0.5 
</TABLE>
</DEFINITION>
<DEFINITION>
<FOR>Minors</FOR>
	<GIVEN>ADR</GIVEN>
	<GIVEN>DistributionChannel</GIVEN>
<TABLE>
0.9997993418412393 2.006581587607352E-4 
0.9971835652750166 0.0028164347249834327 
0.9 0.1 
0.9994604316546762 5.39568345323741E-4 
0.9939024390243902 0.006097560975609756 
0.999595560876177 4.0443912382308214E-4 
0.9965181058495822 0.003481894150417827 
0.5 0.5 
0.9992038216560509 7.961783439490446E-4 
0.9955357142857143 0.004464285714285714 
0.9631024096385542 0.036897590361445784 
0.8828571428571429 0.11714285714285715 
0.5 0.5 
0.8333333333333334 0.16666666666666666 
0.75 0.25 
</TABLE>
</DEFINITION>
<DEFINITION>
<FOR>Staying</FOR>
	<GIVEN>IsRepeatedGuest</GIVEN>
<TABLE>
0.7046248382923674 0.27939844760672705 0.014469598965071152 0.0015071151358344115 
0.9555063913470994 0.03711897738446411 0.005162241887905605 0.0022123893805309734 
</TABLE>
</DEFINITION>
</NETWORK>
</BIF>
